{
  "input_sequences": [],
  "inputs": [
    {
      "name": "track_inputs",
      "variables": [
        {
          "name": "z0",
          "offset": -0.801795761155169,
          "scale": 0.004891802655682167
        },
        {
          "name": "d0",
          "offset": 2.9592775084976832,
          "scale": 0.012866545146263134
        },
        {
          "name": "numberOfSCTHits",
          "offset": -7.917561980706707,
          "scale": 0.9388428443570216
        },
        {
          "name": "Sihits",
          "offset": -9.048500822841547,
          "scale": 0.6787349867046875
        },
        {
          "name": "eta",
          "offset": -0.015801748858211857,
          "scale": 0.7460556050220919
        },
        {
          "name": "numberDoF",
          "offset": -5.179439664976385,
          "scale": 0.4136591534776602
        },
        {
          "name": "geometric_var",
          "offset": -1.1842070254127313,
          "scale": 1.1197225645442273
        },
        {
          "name": "numberOfSCTHoles",
          "offset": -0.26559719564897444,
          "scale": 2.2642328875002
        }
      ]
    }
  ],
  "layers": [
    {
      "activation": "rectified",
      "architecture": "dense",
      "bias": [
        0.07018432766199112,
        0.02211163379251957,
        0.030813168734312057,
        0.07770705223083496,
        0.03346920385956764,
        -0.14601869881153107,
        0.03194575011730194,
        0.018924793228507042,
        0.04283146187663078,
        0.04574725404381752,
        0.00931292213499546,
        0.0913485512137413,
        0.04396826773881912,
        -0.049353644251823425,
        -0.008562881499528885,
        0.0043060434982180595,
        0.23035387694835663,
        0.1225804015994072,
        0.14028164744377136,
        0.04852265492081642,
        0.11319199204444885,
        0.07481509447097778,
        -0.017551934346556664,
        0.028085000813007355
      ],
      "weights": [
        -0.013738332316279411,
        0.22805996239185333,
        -0.15144941210746765,
        -0.2839008569717407,
        0.0885680615901947,
        -0.3362506330013275,
        -0.21975666284561157,
        0.03685496374964714,
        0.11556600779294968,
        0.009897606447339058,
        -0.1302405595779419,
        0.39774462580680847,
        0.007503905799239874,
        0.20454038679599762,
        -0.0018114859703928232,
        -0.19928821921348572,
        -0.22836293280124664,
        -0.16291677951812744,
        -0.037753794342279434,
        0.031368937343358994,
        -0.25422269105911255,
        0.43795451521873474,
        -0.13935880362987518,
        -0.2828313112258911,
        0.1332523226737976,
        -0.2764039933681488,
        -0.4078162908554077,
        0.18782013654708862,
        0.1477748155593872,
        0.4422051012516022,
        -0.04390038549900055,
        -0.30456095933914185,
        0.3196144104003906,
        -0.2366085946559906,
        -0.17310626804828644,
        -0.4108041822910309,
        -0.24868395924568176,
        0.03191406652331352,
        -0.2620423436164856,
        0.1634412407875061,
        -0.28830936551094055,
        0.12820309400558472,
        0.32764577865600586,
        0.45446261763572693,
        0.04674656689167023,
        -0.22282135486602783,
        0.031057672575116158,
        0.32782286405563354,
        0.1709292232990265,
        -0.0847548097372055,
        0.23868271708488464,
        -0.35762259364128113,
        -0.07001787424087524,
        -0.5002276301383972,
        -0.187554731965065,
        -0.15516860783100128,
        -0.2305990606546402,
        -0.10121426731348038,
        0.005475688260048628,
        0.05674576014280319,
        0.4021686017513275,
        0.06630771607160568,
        0.11459507048130035,
        -0.10778740048408508,
        -0.01983320713043213,
        -0.49837398529052734,
        -0.16447670757770538,
        -0.11659949272871017,
        0.21502596139907837,
        -0.22819776833057404,
        -0.0908963605761528,
        -0.0854315459728241,
        0.2280212640762329,
        -0.024072136729955673,
        0.29152676463127136,
        0.007859323173761368,
        0.35672906041145325,
        0.0015131611144170165,
        0.3247918486595154,
        0.20180091261863708,
        -0.3306743800640106,
        0.25989168882369995,
        0.31182411313056946,
        0.34776195883750916,
        -0.24396957457065582,
        0.28272515535354614,
        0.4450540840625763,
        -0.3462057113647461,
        -0.008395959623157978,
        0.02481911890208721,
        -0.6268795728683472,
        -0.41117772459983826,
        0.04123728722333908,
        0.17819195985794067,
        0.3385651111602783,
        0.11327753216028214,
        0.14388345181941986,
        0.3405919075012207,
        -0.06361952424049377,
        0.20998068153858185,
        0.3252987265586853,
        0.2870398163795471,
        -0.2571803033351898,
        0.2703162133693695,
        -0.24739345908164978,
        -0.07884038239717484,
        -0.0521814338862896,
        0.3128305971622467,
        -0.09820272028446198,
        -0.21576790511608124,
        0.10803163051605225,
        -0.23451822996139526,
        0.36298874020576477,
        -0.4659814238548279,
        0.021528689190745354,
        -0.19759875535964966,
        -0.04954411834478378,
        0.1362917274236679,
        0.03887626901268959,
        -0.042973343282938004,
        0.10803543031215668,
        0.38349050283432007,
        -0.22643603384494781,
        -0.16981419920921326,
        -0.1035628691315651,
        -0.13989479839801788,
        -0.12562398612499237,
        0.011579862795770168,
        0.6153112649917603,
        0.2856219708919525,
        -0.05908883363008499,
        0.40480342507362366,
        -0.34413307905197144,
        -0.44532108306884766,
        -0.34028148651123047,
        -0.024447912350296974,
        -0.3411087393760681,
        0.2635757327079773,
        0.11127611249685287,
        -0.12704502046108246,
        -0.3430769145488739,
        0.4556291103363037,
        -0.4631347358226776,
        -0.08455043286085129,
        -0.09497892111539841,
        -0.05317752808332443,
        0.15830126404762268,
        0.12471100687980652,
        0.3031814694404602,
        0.37403586506843567,
        0.015307990834116936,
        -0.31302303075790405,
        0.16316549479961395,
        -0.13542354106903076,
        0.18739615380764008,
        0.1368291974067688,
        0.3913997709751129,
        -0.24273468554019928,
        -0.004175784066319466,
        -0.26827272772789,
        -0.2734817862510681,
        -0.45455875992774963,
        0.24249108135700226,
        -0.3974275588989258,
        -0.38624703884124756,
        -0.3956369459629059,
        0.257244735956192,
        -0.20853200554847717,
        -0.4719463884830475,
        -0.23369714617729187,
        -0.2346363216638565,
        0.22289028763771057,
        -0.2739827036857605,
        0.1613069474697113,
        0.308836966753006,
        -0.07371680438518524,
        -0.6016965508460999,
        0.023991895839571953,
        -0.0009972895495593548,
        -0.36795324087142944,
        0.1943187266588211,
        0.3156694173812866,
        -0.035967014729976654,
        0.0714523121714592,
        0.3198063373565674,
        0.46276184916496277,
        -0.3167281746864319,
        0.37891146540641785,
        0.2727399170398712,
        -0.2761419117450714,
        0.1654052883386612,
        -0.15304182469844818
      ]
    },
    {
      "activation": "rectified",
      "architecture": "dense",
      "bias": [
        0.0045847403816878796,
        -0.014862162992358208,
        0.09820736199617386,
        0.06416068971157074,
        0.09559076279401779,
        0.05744404345750809,
        0.03301965072751045,
        0.02091176062822342,
        0.061495546251535416,
        0.0657430961728096,
        -0.049478042870759964,
        0.08105524629354477,
        -0.020314212888479233,
        0.048037249594926834,
        0.09330707043409348,
        0.039601363241672516,
        -0.0007169192540459335,
        0.029826555401086807,
        0.0943109467625618,
        0.02917499467730522,
        0.052846625447273254,
        0.07490868121385574,
        -0.005257162265479565,
        -0.011944236233830452
      ],
      "weights": [
        -0.10691211372613907,
        -0.18392711877822876,
        -0.20057101547718048,
        0.014013958163559437,
        -0.3304036855697632,
        -0.020489908754825592,
        -0.39757058024406433,
        0.351718008518219,
        0.17915113270282745,
        0.18867911398410797,
        0.062219470739364624,
        0.16220732033252716,
        0.05440754443407059,
        0.27979776263237,
        0.41840416193008423,
        0.1875535100698471,
        0.4519572854042053,
        -0.22332632541656494,
        -0.05773357301950455,
        -0.1567455381155014,
        0.023040741682052612,
        0.11734563857316971,
        0.05552130565047264,
        0.09943737834692001,
        -0.34234774112701416,
        0.29869067668914795,
        -0.25396886467933655,
        -0.22692258656024933,
        0.3019604980945587,
        0.260272741317749,
        -0.14460590481758118,
        0.2368571162223816,
        -0.21166455745697021,
        -0.09885834902524948,
        -0.0837603434920311,
        0.4148505926132202,
        -0.21074706315994263,
        -0.20819702744483948,
        0.28662776947021484,
        -0.170850932598114,
        -0.12220383435487747,
        -0.2627430260181427,
        0.343209445476532,
        -0.26246681809425354,
        0.16068404912948608,
        -0.028615755960345268,
        0.347347229719162,
        0.1556471884250641,
        -0.08679825812578201,
        -0.2576749324798584,
        -0.19074048101902008,
        -0.17699311673641205,
        0.16442008316516876,
        0.062532939016819,
        -0.11389140784740448,
        -0.12528248131275177,
        0.08715567737817764,
        -0.11362757533788681,
        -0.2224559187889099,
        0.3004457354545593,
        0.12917916476726532,
        0.15997962653636932,
        0.15566670894622803,
        -0.04734337329864502,
        0.08292096108198166,
        -0.08908867835998535,
        0.05370717868208885,
        0.038264043629169464,
        -0.20640382170677185,
        -0.054769884794950485,
        0.0356750562787056,
        0.169566348195076,
        0.019397960975766182,
        0.2531503736972809,
        0.1916777789592743,
        0.17906010150909424,
        0.10614725947380066,
        -0.2137557417154312,
        0.23161537945270538,
        0.02763183042407036,
        -0.3396186828613281,
        0.20646052062511444,
        -0.29231080412864685,
        0.1278969943523407,
        0.05176425352692604,
        -0.03264246881008148,
        -0.2523527443408966,
        0.17976656556129456,
        0.18616193532943726,
        0.34921225905418396,
        0.16941134631633759,
        0.044463276863098145,
        0.2880042493343353,
        -0.12677186727523804,
        -0.0715862289071083,
        0.31272608041763306,
        0.08865416795015335,
        -0.2565033733844757,
        0.08259325474500656,
        -0.2651594877243042,
        0.09212646633386612,
        -0.0020522514823824167,
        -0.09678414463996887,
        -0.3026513159275055,
        -0.09808158129453659,
        -0.3494395315647125,
        0.33210137486457825,
        -0.03531082719564438,
        -0.22362945973873138,
        -0.17123591899871826,
        -0.24604661762714386,
        -0.04337321221828461,
        0.2882465124130249,
        -0.24435701966285706,
        0.04990304261445999,
        -0.21639172732830048,
        0.3232186734676361,
        -0.12827235460281372,
        -0.06754182279109955,
        -0.2736855149269104,
        -0.3138127028942108,
        0.1559615284204483,
        0.3281281590461731,
        0.09235905855894089,
        0.1670045256614685,
        0.18713654577732086,
        -0.12324865162372589,
        0.024212660267949104,
        -0.16005682945251465,
        0.2025439590215683,
        0.025836043059825897,
        0.01764093153178692,
        0.2010943740606308,
        -0.2381991147994995,
        -0.3678416907787323,
        -0.4307974576950073,
        -0.1455816775560379,
        0.3557681441307068,
        0.31289735436439514,
        -0.17236794531345367,
        0.09499316662549973,
        -0.2645086348056793,
        0.13290883600711823,
        -0.2763315439224243,
        0.1886792778968811,
        -0.043780822306871414,
        0.3214731812477112,
        0.06859343498945236,
        0.16051901876926422,
        -0.1102902740240097,
        0.2547776699066162,
        0.22157904505729675,
        -0.012351114302873611,
        0.12484940141439438,
        -0.19844599068164825,
        0.18484275043010712,
        0.11080703139305115,
        -0.1655777245759964,
        -0.14775651693344116,
        0.06926670670509338,
        0.27282068133354187,
        0.1446559876203537,
        -0.2704634964466095,
        0.37966781854629517,
        -0.16353487968444824,
        -0.00175529217813164,
        -0.02106718346476555,
        -0.1283298134803772,
        -0.22407232224941254,
        0.05943761765956879,
        -0.0683644711971283,
        0.051667749881744385,
        0.31192904710769653,
        -0.24827241897583008,
        -0.3350609838962555,
        0.11516598612070084,
        0.21014156937599182,
        0.34679800271987915,
        -0.11861062049865723,
        0.4127083122730255,
        0.30066919326782227,
        0.01447804644703865,
        -0.350344181060791,
        0.12104305624961853,
        -0.1946377158164978,
        -0.2707240879535675,
        -0.3864140510559082,
        -0.2195175439119339,
        0.10252251476049423,
        0.2850443124771118,
        -0.08921980857849121,
        0.13422825932502747,
        0.2193925678730011,
        -0.2633433938026428,
        0.3024628460407257,
        -0.35972678661346436,
        -0.04532497748732567,
        0.10860779136419296,
        0.1318148821592331,
        0.18816009163856506,
        0.22541439533233643,
        -0.0445098802447319,
        0.09623847901821136,
        -0.4978027939796448,
        -0.03981253504753113,
        0.06979598104953766,
        0.02515648677945137,
        -0.2807362675666809,
        0.32965153455734253,
        -0.14422141015529633,
        -0.004324323497712612,
        0.02610880322754383,
        -0.1469736546278,
        -0.1790892481803894,
        -0.3647705912590027,
        -0.17704129219055176,
        0.11545806378126144,
        0.29191476106643677,
        -0.14774562418460846,
        0.11314044892787933,
        -0.22647996246814728,
        -0.2938063144683838,
        -0.096004419028759,
        -0.00022517652541864663,
        0.14516539871692657,
        -0.11728337407112122,
        -0.20804902911186218,
        0.20384161174297333,
        0.272535502910614,
        0.2069784551858902,
        -0.14185789227485657,
        -0.09925678372383118,
        0.021554557606577873,
        0.08744590729475021,
        0.031669870018959045,
        0.06518527120351791,
        -0.1602783352136612,
        0.3679533898830414,
        -0.3054010570049286,
        0.2977959215641022,
        -0.2977275550365448,
        -0.21535491943359375,
        -0.11003211885690689,
        -0.14342285692691803,
        -0.16046452522277832,
        -0.2999807298183441,
        -0.41893962025642395,
        0.10684909671545029,
        0.09074658155441284,
        0.20699767768383026,
        -0.06626337021589279,
        -0.0025556227192282677,
        0.16779209673404694,
        0.352068156003952,
        -0.24407657980918884,
        -0.27118709683418274,
        0.368316650390625,
        -0.18652746081352234,
        -0.1938178986310959,
        0.13042429089546204,
        -0.2358490377664566,
        0.34693044424057007,
        0.11229287832975388,
        -0.3774828016757965,
        -0.018116537481546402,
        -0.08224516361951828,
        0.18251340091228485,
        0.07712730020284653,
        -0.22306856513023376,
        0.28904280066490173,
        0.16914577782154083,
        -0.18061134219169617,
        -0.3339139521121979,
        0.3091893792152405,
        0.09511030465364456,
        0.07727254182100296,
        -0.06495881080627441,
        0.060659412294626236,
        -0.23211835324764252,
        -0.35059797763824463,
        -0.31147241592407227,
        0.14523279666900635,
        0.1701042801141739,
        0.1301763653755188,
        0.12000688910484314,
        0.232716903090477,
        -0.2430981695652008,
        0.17256277799606323,
        0.26738032698631287,
        -0.14062143862247467,
        0.07154391705989838,
        -0.01936488226056099,
        -0.2977076768875122,
        -0.17994539439678192,
        0.25495800375938416,
        0.017470672726631165,
        0.07248163223266602,
        0.1631018966436386,
        -0.22799494862556458,
        0.33206143975257874,
        0.2797538936138153,
        -0.2381507158279419,
        -0.1932390034198761,
        -0.05365358293056488,
        0.16176654398441315,
        -0.18056322634220123,
        -0.21914952993392944,
        -0.05436220020055771,
        0.20580939948558807,
        -0.15370626747608185,
        0.15052811801433563,
        -0.1154707595705986,
        -0.2386133223772049,
        -0.24021071195602417,
        -0.0016471721464768052,
        0.16063328087329865,
        0.16497938334941864,
        -0.33443042635917664,
        0.08141063898801804,
        0.2529357969760895,
        0.3099309206008911,
        -0.19975510239601135,
        -0.1915566474199295,
        -0.14725999534130096,
        -0.025052402168512344,
        -0.12402760237455368,
        0.3227953314781189,
        -0.3953970670700073,
        -0.19298139214515686,
        0.1531350165605545,
        -0.08623015135526657,
        -0.29091212153434753,
        0.1869650036096573,
        0.15875603258609772,
        0.34070518612861633,
        0.09296337515115738,
        -0.19768308103084564,
        0.2433592826128006,
        -0.17970646917819977,
        -0.012387793511152267,
        -0.2553928792476654,
        -0.05297831445932388,
        -0.019436007365584373,
        0.30282357335090637,
        0.21362417936325073,
        0.09194411337375641,
        0.1791505366563797,
        0.43170931935310364,
        -0.25842776894569397,
        -0.29802945256233215,
        -0.4045964777469635,
        -0.11417119950056076,
        -0.24555525183677673,
        -0.2562641203403473,
        0.24672862887382507,
        -0.1007423996925354,
        -0.06396947056055069,
        -0.4136817455291748,
        -0.3525066375732422,
        -0.1498735249042511,
        0.39805614948272705,
        -0.2470903843641281,
        0.27955013513565063,
        -0.2708394527435303,
        0.3800137937068939,
        0.2687814235687256,
        -0.1873445361852646,
        0.08131091296672821,
        -0.15758225321769714,
        0.07725147902965546,
        -0.02004661038517952,
        0.44794249534606934,
        0.24827931821346283,
        -0.33805838227272034,
        -0.006738567259162664,
        0.32850757241249084,
        0.4056718945503235,
        0.17175798118114471,
        -0.07773920148611069,
        -0.27556732296943665,
        0.2150101512670517,
        -0.020076915621757507,
        -0.0675790011882782,
        0.3268725275993347,
        -0.0647459402680397,
        -0.30932438373565674,
        -0.2765176296234131,
        0.12437088042497635,
        0.30349215865135193,
        0.14043186604976654,
        -0.07202416658401489,
        0.03529790788888931,
        0.32891228795051575,
        -0.029328957200050354,
        -0.12694703042507172,
        -0.15273672342300415,
        -0.059355732053518295,
        0.228216752409935,
        0.15722745656967163,
        -0.3021411597728729,
        -0.03777459263801575,
        -0.17975138127803802,
        -0.08519084006547928,
        -0.039555829018354416,
        0.062436290085315704,
        0.2051069587469101,
        0.2493250072002411,
        -0.12955936789512634,
        -0.047003790736198425,
        -0.1690986603498459,
        -0.11502473056316376,
        0.10073117166757584,
        0.11430394649505615,
        -0.11897493898868561,
        0.05926975607872009,
        0.3858838379383087,
        0.0585683174431324,
        0.07564891874790192,
        0.3216921389102936,
        0.2534342110157013,
        -0.05583375319838524,
        -0.07251006364822388,
        0.18789048492908478,
        0.3431379795074463,
        0.3136621415615082,
        -0.2979351580142975,
        -0.02289697155356407,
        -0.04279249906539917,
        -0.3486742079257965,
        0.12696994841098785,
        0.07261459529399872,
        0.3174833059310913,
        0.22748759388923645,
        -0.044894881546497345,
        0.26605477929115295,
        0.12429432570934296,
        0.2460068017244339,
        0.036514971405267715,
        0.019252054393291473,
        -0.022970855236053467,
        0.2550886571407318,
        0.11419309675693512,
        0.13034005463123322,
        0.3438071608543396,
        -0.18125295639038086,
        0.3255726397037506,
        0.21796990931034088,
        -0.08718077093362808,
        0.24834564328193665,
        0.34477418661117554,
        0.3131259083747864,
        -0.03496016561985016,
        -0.327703058719635,
        0.3858555257320404,
        0.3466091454029083,
        -0.055136147886514664,
        0.3240957260131836,
        0.20260991156101227,
        0.29059895873069763,
        0.35906851291656494,
        -0.20438741147518158,
        -0.34620967507362366,
        -0.15336082875728607,
        -0.22428782284259796,
        0.34688401222229004,
        0.30258265137672424,
        0.308528333902359,
        -0.17589710652828217,
        0.09718077629804611,
        -0.11404236406087875,
        -0.02963338978588581,
        0.04911930859088898,
        0.025764063000679016,
        -0.044349946081638336,
        0.008064184337854385,
        0.25833970308303833,
        -0.2260514199733734,
        0.14222866296768188,
        -0.1988285332918167,
        0.20218482613563538,
        0.18294686079025269,
        -0.27315154671669006,
        -0.1090666726231575,
        -0.4254319667816162,
        -0.24663810431957245,
        -0.16895104944705963,
        -0.15414516627788544,
        -0.1033928394317627,
        0.012887533754110336,
        -0.06356166303157806,
        -0.13480286300182343,
        0.31744492053985596,
        0.22573624551296234,
        -0.25014325976371765,
        -0.042626913636922836,
        0.14732830226421356,
        0.16189247369766235,
        0.09088456630706787,
        -1.5344907296821475e-05,
        -0.32463258504867554,
        -0.02465011179447174,
        -0.27700096368789673,
        0.39979201555252075,
        0.21061661839485168,
        0.08038266748189926,
        0.2679300308227539,
        -0.3567098379135132,
        0.05861346796154976,
        -0.13038499653339386,
        -0.027536995708942413,
        0.16583769023418427,
        0.03183688223361969,
        0.23620451986789703,
        -0.1555829793214798,
        0.15505924820899963,
        -0.06643465906381607,
        -0.11527681350708008,
        0.02406313642859459,
        -0.19059866666793823,
        -0.05445060133934021,
        0.35363873839378357,
        -0.2737109363079071,
        0.22280487418174744,
        -0.13334016501903534,
        0.1280539631843567,
        0.1773444563150406,
        -0.26447635889053345,
        0.11240489780902863,
        -0.1534886360168457,
        -0.05700891092419624,
        -0.050117526203393936,
        0.3076249361038208,
        0.041999783366918564,
        0.033720530569553375,
        0.22086897492408752,
        -0.17062212526798248,
        -0.2542487382888794,
        0.025119857862591743,
        -0.22777500748634338,
        0.06648577004671097,
        0.11831072717905045,
        -0.3791613280773163,
        0.15829706192016602,
        -0.3418591320514679,
        0.38466736674308777,
        0.27133578062057495,
        0.057742681354284286,
        -0.13494835793972015,
        -0.273110568523407,
        -0.3063908815383911,
        0.17700637876987457,
        -0.24822111427783966,
        -0.022309815511107445,
        0.2995723485946655,
        0.009992743842303753,
        0.20607779920101166,
        -0.01162988506257534,
        -0.2352697104215622,
        -4.246867320034653e-07,
        -0.4100918173789978,
        -0.19490650296211243,
        -0.24031025171279907,
        -0.15479974448680878,
        0.3417344391345978,
        0.1535237729549408,
        -0.3462889790534973,
        -0.11621951311826706,
        0.012416774407029152,
        -0.0036033163778483868,
        0.3021981120109558,
        -0.37934228777885437,
        0.21241968870162964,
        -0.2657538056373596,
        0.19214971363544464,
        -0.03045155107975006,
        0.3520973026752472
      ]
    },
    {
      "activation": "linear",
      "architecture": "dense",
      "bias": [
        0.05085333436727524,
        -0.09730282425880432,
        0.06915239244699478,
        -0.04969492182135582,
        0.028592664748430252,
        -0.018430352210998535,
        0.04891005903482437,
        -0.0049879360012710094,
        -0.10668202489614487,
        -0.04087876155972481,
        0.042684588581323624,
        -0.05876064673066139,
        0.023254133760929108,
        -0.007277521770447493,
        0.0011259475722908974,
        0.056468501687049866,
        0.05706518143415451,
        0.04253275319933891,
        -0.03927012160420418,
        0.0791986733675003,
        -0.04831966385245323,
        0.006835729815065861,
        0.04441973194479942,
        0.03662519156932831,
        -0.046896450221538544,
        -0.018187792971730232,
        0.02548115886747837,
        -0.012005737982690334,
        -0.06726779043674469,
        0.01589098572731018,
        -0.012105741538107395,
        -0.0032521693501621485,
        -0.0637223869562149,
        -0.0057536158710718155,
        0.04573817551136017,
        0.12161906808614731,
        0.04601305350661278,
        -0.009162883274257183,
        -0.04763728752732277,
        0.035736359655857086,
        -0.028303852304816246,
        -0.08745832741260529,
        0.01692945882678032,
        0.032355956733226776,
        -0.03111220896244049,
        -0.014697088859975338,
        -0.07261578738689423,
        -0.03380827605724335,
        0.036751434206962585,
        0.05027039721608162,
        0.018906444311141968,
        -0.06584545224905014,
        -0.06767809391021729,
        -0.02022833749651909,
        -0.031545527279376984,
        -0.03995152935385704,
        -0.03834564611315727,
        -0.03760649263858795,
        -0.004107648506760597,
        -0.051411718130111694,
        -0.02949823997914791,
        0.013523796573281288,
        -0.029021358117461205,
        0.04458935186266899
      ],
      "weights": [
        -0.1718263477087021,
        0.006354523357003927,
        -0.21425987780094147,
        -0.03867175430059433,
        0.12774872779846191,
        -0.015873707830905914,
        0.16066765785217285,
        0.011447139084339142,
        0.21040715277194977,
        -0.15783438086509705,
        -0.058297861367464066,
        0.01760890521109104,
        0.16968762874603271,
        0.14506393671035767,
        -0.11040468513965607,
        -0.2464740127325058,
        0.166675865650177,
        -0.05622266232967377,
        0.1303267925977707,
        -0.08455855399370193,
        -0.049142565578222275,
        0.0259687602519989,
        -0.09145074337720871,
        0.18136267364025116,
        -0.05370396375656128,
        -0.21905240416526794,
        0.06529413908720016,
        0.07966858148574829,
        0.10340650379657745,
        -0.09401566535234451,
        0.03549894317984581,
        -0.027259135618805885,
        -0.0024720297660678625,
        -0.1574038714170456,
        -0.00028602717793546617,
        0.12130891531705856,
        0.07820749282836914,
        -0.16818168759346008,
        -0.05953522026538849,
        -0.000564254354685545,
        -0.09841597825288773,
        -0.23092229664325714,
        -0.05032285675406456,
        -0.12614788115024567,
        -0.09993331134319305,
        -0.03583870455622673,
        -0.1421947032213211,
        -0.1965823471546173,
        -0.022677268832921982,
        -0.1696457713842392,
        0.016228053718805313,
        0.1757548600435257,
        0.11932787299156189,
        -0.10607041418552399,
        0.20876950025558472,
        0.02089710533618927,
        -0.05257445201277733,
        0.013523492962121964,
        0.08268122375011444,
        0.14096826314926147,
        -0.05729290843009949,
        0.202152818441391,
        -0.01782178319990635,
        0.13525733351707458,
        0.13420253992080688,
        0.1771893948316574,
        0.005400105379521847,
        -0.22532740235328674,
        -0.00856179278343916,
        0.14591556787490845,
        0.17035716772079468,
        -0.06934774667024612,
        -0.10580901801586151,
        -0.1642792671918869,
        -0.1762942373752594,
        0.1217474564909935,
        0.009389160200953484,
        -0.0007227015448734164,
        -0.0340055488049984,
        -0.15417133271694183,
        -0.07980074733495712,
        -0.08704323321580887,
        -0.0005414151819422841,
        0.10379623621702194,
        -0.20096060633659363,
        -0.022392692044377327,
        0.1402837336063385,
        -0.3280155062675476,
        0.17136859893798828,
        -0.06301811337471008,
        -0.28523609042167664,
        0.16490909457206726,
        -0.24703006446361542,
        0.06145494431257248,
        -0.11444344371557236,
        -0.12061095982789993,
        -0.05592848360538483,
        -0.2134539932012558,
        0.07752849161624908,
        -0.10624457150697708,
        -0.13956616818904877,
        0.21237117052078247,
        0.026754697784781456,
        0.22541402280330658,
        -0.15698470175266266,
        0.16981787979602814,
        0.03471381217241287,
        -0.17394699156284332,
        0.06893660128116608,
        -0.19149672985076904,
        0.14352867007255554,
        0.0714292898774147,
        -0.23633962869644165,
        -0.1644420474767685,
        -0.12251473218202591,
        0.21203288435935974,
        -0.009971007704734802,
        -0.00439499830827117,
        0.16746464371681213,
        0.16198565065860748,
        0.23230035603046417,
        0.15334485471248627,
        0.0284426286816597,
        -0.15276473760604858,
        -0.01845521107316017,
        -0.07090805470943451,
        -0.026542456820607185,
        -0.24091458320617676,
        0.1582796722650528,
        -0.18446451425552368,
        0.09642503410577774,
        0.11443406343460083,
        0.022730261087417603,
        0.1983858346939087,
        -0.24853436648845673,
        -0.09474590420722961,
        0.20352651178836823,
        -0.061748869717121124,
        -0.19130827486515045,
        -0.0028009770903736353,
        -0.2293015569448471,
        -0.14755678176879883,
        -0.21498389542102814,
        -0.11191020905971527,
        -0.11400919407606125,
        0.24681448936462402,
        0.1951829493045807,
        0.2004796713590622,
        0.23577094078063965,
        -0.0817238911986351,
        -0.14687205851078033,
        0.30770865082740784,
        0.13504597544670105,
        0.2135629951953888,
        -0.20675772428512573,
        0.011353540234267712,
        0.0741911306977272,
        -0.002981852274388075,
        0.15213070809841156,
        -0.07140669226646423,
        -0.18180415034294128,
        -0.0183420367538929,
        0.14602354168891907,
        -0.06644681096076965,
        0.057171519845724106,
        0.20106226205825806,
        0.2618464231491089,
        0.06947542726993561,
        0.32901278138160706,
        -0.10596074908971786,
        0.21335384249687195,
        -0.21309176087379456,
        -0.30969351530075073,
        0.09889569878578186,
        0.12263227999210358,
        -0.018336022272706032,
        0.14926521480083466,
        0.017356760799884796,
        0.09446927160024643,
        -0.24838881194591522,
        -0.10350486636161804,
        -0.14199015498161316,
        -0.0683690533041954,
        0.22419647872447968,
        -0.032659705728292465,
        0.2977868318557739,
        0.13902442157268524,
        0.15544986724853516,
        0.13212840259075165,
        -0.2317887246608734,
        0.07409877330064774,
        -0.12592341005802155,
        -0.24215605854988098,
        -0.25655847787857056,
        -0.12157320231199265,
        0.00028572051087394357,
        -0.02881692163646221,
        -0.05283352732658386,
        -0.04107904061675072,
        -0.08501889556646347,
        0.01584761217236519,
        0.019459323957562447,
        -0.017017971724271774,
        -0.00898080226033926,
        0.10647077858448029,
        -0.08127589523792267,
        0.0008806336554698646,
        0.0013297498226165771,
        -0.046095117926597595,
        -0.04809816554188728,
        -0.15539033710956573,
        0.0424564853310585,
        -0.11530443280935287,
        -0.09891840815544128,
        -8.399632497457787e-05,
        0.03388752415776253,
        -0.2239943891763687,
        -0.002658532466739416,
        -0.005414366256445646,
        0.050011828541755676,
        0.09877774119377136,
        0.13002778589725494,
        -0.08003927767276764,
        -0.07995594292879105,
        0.006995842792093754,
        -0.21543844044208527,
        9.201560897054151e-05,
        -0.07521827518939972,
        0.05215901881456375,
        0.061824217438697815,
        -0.04684668779373169,
        0.017295336350798607,
        0.18552708625793457,
        -0.15763159096240997,
        -0.17381128668785095,
        -0.01956217736005783,
        -0.04241439327597618,
        -0.011571078561246395,
        -9.387086902279407e-05,
        0.0011924454011023045,
        -0.09727437794208527,
        0.16219566762447357,
        0.1317199170589447,
        0.2176368236541748,
        -0.09248794615268707,
        -0.15673349797725677,
        -0.16624096035957336,
        0.3214503228664398,
        0.1125243604183197,
        0.07585366070270538,
        0.05079026520252228,
        0.13457722961902618,
        0.2927483320236206,
        -0.2705959677696228,
        0.2769421935081482,
        0.08170271664857864,
        -0.23741401731967926,
        0.12517599761486053,
        0.10187512636184692,
        -0.04494918882846832,
        -0.03609015792608261,
        -0.042054496705532074,
        -0.13332632184028625,
        0.2478436827659607,
        0.02687983401119709,
        -0.26437288522720337,
        -0.038756538182497025,
        -0.2298084795475006,
        -0.03857870027422905,
        0.0787244513630867,
        -0.1226978674530983,
        -0.2727525234222412,
        -0.2707468569278717,
        0.016143299639225006,
        -0.10573079437017441,
        -0.31760653853416443,
        0.11948176473379135,
        -0.09880660474300385,
        -0.025421127676963806,
        0.04496513679623604,
        0.02031235210597515,
        0.22741557657718658,
        -0.08203449845314026,
        -0.25474536418914795,
        -0.12843027710914612,
        -0.001918408670462668,
        0.11773943901062012,
        0.12858381867408752,
        -0.1792358011007309,
        0.04286528378725052,
        -0.1266501098871231,
        -0.07132812589406967,
        -0.04188716039061546,
        0.12005019932985306,
        0.03641490265727043,
        -0.08256024867296219,
        0.0007463878719136119,
        -0.053145308047533035,
        0.0003571994311641902,
        0.07295453548431396,
        0.015877844765782356,
        0.13574077188968658,
        -0.000379056524252519,
        -0.23652049899101257,
        0.058315202593803406,
        0.028663400560617447,
        0.0445222407579422,
        -0.04387575015425682,
        -0.002281416906043887,
        -0.12516812980175018,
        -0.08294270932674408,
        0.0017893473850563169,
        -0.12564226984977722,
        -0.10895541310310364,
        0.05569807067513466,
        -0.027296368032693863,
        -0.2785300314426422,
        -0.08731803297996521,
        0.17566868662834167,
        0.043816372752189636,
        -0.01786400005221367,
        0.2023003250360489,
        0.1616935282945633,
        -0.23103147745132446,
        0.11514412611722946,
        0.017774520441889763,
        -0.06638287752866745,
        -0.13377155363559723,
        0.04602580517530441,
        0.27496179938316345,
        -0.0858267992734909,
        -0.24550268054008484,
        0.06385602802038193,
        -0.12312386184930801,
        0.030161527916789055,
        -0.05092243850231171,
        0.2410096377134323,
        -0.10928275436162949,
        -0.0281881894916296,
        0.10263337939977646,
        0.02318926714360714,
        0.04798001050949097,
        -0.12885838747024536,
        -0.13993476331233978,
        -0.06585738807916641,
        -0.04139900952577591,
        0.03721599280834198,
        0.12424816936254501,
        -0.002794428961351514,
        0.02130172587931156,
        -0.128872811794281,
        0.11589386314153671,
        0.10868236422538757,
        -0.13645239174365997,
        0.2610023617744446,
        0.13905827701091766,
        0.2955711781978607,
        -0.022657498717308044,
        -0.16682440042495728,
        0.01472521387040615,
        0.1017843559384346,
        -0.06298266351222992,
        0.16903133690357208,
        0.22398295998573303,
        0.17777732014656067,
        0.15778124332427979,
        -0.005412138067185879,
        0.03229639679193497,
        0.03255430608987808,
        0.02709883823990822,
        -0.04971550032496452,
        -0.09892276674509048,
        0.1845652312040329,
        0.2224768102169037,
        0.0834079310297966,
        -0.07481914758682251,
        0.18059881031513214,
        0.16879865527153015,
        0.24771875143051147,
        0.21656422317028046,
        0.15890632569789886,
        -0.1730508804321289,
        0.2043268382549286,
        0.2497769147157669,
        -0.23374328017234802,
        -0.05655508115887642,
        0.1485421359539032,
        0.2774695158004761,
        0.008676594123244286,
        0.04316231980919838,
        0.17001157999038696,
        0.18422506749629974,
        -0.0696517825126648,
        -0.16511677205562592,
        0.13484340906143188,
        -0.05401121452450752,
        0.03807205334305763,
        0.1020619198679924,
        0.15690521895885468,
        0.19299672544002533,
        -0.06511352956295013,
        0.23506268858909607,
        -0.09618639945983887,
        0.026269588619470596,
        -0.06702370941638947,
        -0.09273502975702286,
        0.16672872006893158,
        0.00034802567097358406,
        -0.2398301512002945,
        0.15292127430438995,
        -0.09462346136569977,
        0.05133538320660591,
        0.14244674146175385,
        0.19235049188137054,
        0.21878305077552795,
        -0.08683396130800247,
        -0.12301615625619888,
        -0.0792054757475853,
        -0.13252122700214386,
        0.1486755907535553,
        -0.08142820745706558,
        0.04125599190592766,
        0.23822250962257385,
        -0.22562527656555176,
        -0.016122249886393547,
        0.16679100692272186,
        0.18954288959503174,
        0.005932033061981201,
        -0.25287485122680664,
        -0.11464717239141464,
        0.2482551485300064,
        -0.033132798969745636,
        -0.22304129600524902,
        0.027655238285660744,
        0.058876410126686096,
        -0.14172084629535675,
        -0.10869473963975906,
        0.09665188193321228,
        0.10228870809078217,
        -0.20865149796009064,
        0.06766540557146072,
        -0.27824777364730835,
        0.05227965861558914,
        -0.00036849529715254903,
        0.03916586935520172,
        0.10285325348377228,
        -0.053892720490694046,
        -0.10137112438678741,
        0.1923322081565857,
        -0.2155718207359314,
        -0.10983728617429733,
        -0.21285641193389893,
        -0.18037503957748413,
        -0.015260185115039349,
        -0.1309434473514557,
        -0.14529287815093994,
        0.018729882314801216,
        0.10552551597356796,
        0.034751325845718384,
        0.20815062522888184,
        0.05899282544851303,
        0.15654316544532776,
        0.2203286737203598,
        0.04346707835793495,
        -0.15956048667430878,
        0.13562659919261932,
        -0.018997706472873688,
        -0.07481905817985535,
        0.07371285557746887,
        0.0212631206959486,
        0.020495137199759483,
        0.1405489593744278,
        -0.06347481161355972,
        -0.030797965824604034,
        -0.13609132170677185,
        -0.03713138774037361,
        0.034709881991147995,
        -0.002526796655729413,
        0.1467238962650299,
        0.3009698987007141,
        -0.3627914488315582,
        0.06213381513953209,
        -0.22879165410995483,
        -0.11644528061151505,
        0.2621081471443176,
        -0.1550556868314743,
        -0.1474861055612564,
        0.11440762132406235,
        -0.06572072952985764,
        -0.0003866706392727792,
        -0.0010740566067397594,
        0.21386663615703583,
        -0.13580726087093353,
        -0.1194501593708992,
        0.24793237447738647,
        -0.13793247938156128,
        -0.3288520574569702,
        -0.16616758704185486,
        -0.048731908202171326,
        0.14644114673137665,
        -0.33027154207229614,
        -0.156093567609787,
        0.0071825431659817696,
        0.0454767644405365,
        0.07208534330129623,
        0.03092605620622635,
        -0.07995143532752991,
        0.1643325537443161,
        -0.031735751777887344,
        0.18031750619411469,
        0.1891150027513504,
        0.016482794657349586,
        -0.015854448080062866,
        0.1634531170129776,
        0.07250627875328064,
        -0.1889488250017166,
        0.11991463601589203,
        -0.11449937522411346,
        -0.09496568888425827,
        0.12177141010761261,
        0.0017373310402035713,
        0.2741462290287018,
        0.013935953378677368,
        0.12330113351345062,
        0.0800141841173172,
        0.09930317848920822,
        0.08359271287918091,
        -0.2549801468849182,
        0.11071429401636124,
        -0.0658312663435936,
        0.03582202270627022,
        -0.0862855389714241,
        -0.1538008749485016,
        0.048331353813409805,
        0.07965194433927536,
        -0.04481020197272301,
        -0.023175349459052086,
        -0.10458322614431381,
        0.030346758663654327,
        -0.27821996808052063,
        0.20878545939922333,
        -0.07409515976905823,
        0.08736616373062134,
        -0.017264505848288536,
        0.24585486948490143,
        0.04681738093495369,
        0.2472626119852066,
        -0.003393546910956502,
        0.25462183356285095,
        0.12538865208625793,
        -0.16764937341213226,
        0.08384404331445694,
        0.05059950053691864,
        0.1637195348739624,
        0.07824931293725967,
        -0.018595410510897636,
        0.15988534688949585,
        -0.013433792628347874,
        -0.13620932400226593,
        -0.011382092721760273,
        -0.15718387067317963,
        -0.12352179735898972,
        0.00013438338646665215,
        -0.04799233749508858,
        0.18310458958148956,
        0.18848517537117004,
        -0.01937076263129711,
        -0.09921050816774368,
        0.11865691095590591,
        0.06113056093454361,
        -0.07136613130569458,
        -0.20372138917446136,
        -0.07828336209058762,
        0.10822316259145737,
        -0.1423615664243698,
        0.022180868312716484,
        -0.10940616577863693,
        0.008703830651938915,
        -0.0027664722874760628,
        -0.24302907288074493,
        0.08276907354593277,
        -0.19037654995918274,
        -0.08209327608346939,
        -0.08443049341440201,
        0.07145333290100098,
        -0.18298223614692688,
        -0.013689392246305943,
        -0.24982444941997528,
        -0.11539377272129059,
        0.12233633548021317,
        -0.09756320714950562,
        0.1576884537935257,
        0.014386316761374474,
        0.21035172045230865,
        0.251895010471344,
        0.15737347304821014,
        0.11150123178958893,
        0.12225884199142456,
        -0.07434112578630447,
        -0.1733049750328064,
        0.014718081802129745,
        -0.017657175660133362,
        0.23739469051361084,
        0.11470617353916168,
        -0.2840542197227478,
        0.1527801901102066,
        -0.024746013805270195,
        0.06642301380634308,
        -0.24291327595710754,
        -0.010920887812972069,
        -0.09167281538248062,
        0.03039713017642498,
        0.1269955188035965,
        0.14886479079723358,
        -0.1554342359304428,
        0.09184805303812027,
        0.000552340061403811,
        0.1979140192270279,
        0.05094842240214348,
        0.022828884422779083,
        0.09121476113796234,
        -0.21376731991767883,
        -0.15421730279922485,
        -0.12958605587482452,
        -0.2727009952068329,
        -0.2511430084705353,
        -0.04578602686524391,
        0.22643420100212097,
        0.24738110601902008,
        0.1985352486371994,
        0.002695923438295722,
        0.15642768144607544,
        -0.008740361779928207,
        0.24405421316623688,
        0.12334080040454865,
        0.21394604444503784,
        -0.09259691834449768,
        -0.21755139529705048,
        0.11338932812213898,
        -0.1605706512928009,
        -0.12186427414417267,
        -0.013454463332891464,
        0.06568526476621628,
        -0.027442052960395813,
        0.23124784231185913,
        -0.04090414568781853,
        0.01784367673099041,
        -0.13700462877750397,
        -0.06932079046964645,
        0.2081703543663025,
        -0.14052443206310272,
        -0.1940869241952896,
        0.05147695541381836,
        -0.0933133214712143,
        -0.27272891998291016,
        -0.22300009429454803,
        -0.2723338007926941,
        -0.09313883632421494,
        0.12164170295000076,
        -0.18965937197208405,
        -0.12673838436603546,
        0.30579590797424316,
        -0.29811891913414,
        0.22504150867462158,
        0.012272396124899387,
        0.2871370315551758,
        0.11013656109571457,
        0.041638292372226715,
        0.15038880705833435,
        -0.040046170353889465,
        -0.07732245326042175,
        -0.2781640291213989,
        0.20043542981147766,
        -0.1374771147966385,
        -0.18056610226631165,
        -0.045188914984464645,
        0.1236414983868599,
        -0.19280339777469635,
        0.002182692289352417,
        -0.006926286965608597,
        -0.11795797199010849,
        0.11382728070020676,
        -0.021622518077492714,
        -0.23816436529159546,
        -0.1653665006160736,
        0.19068291783332825,
        0.06798513233661652,
        -0.2638286352157593,
        0.13307316601276398,
        -0.1333857625722885,
        0.08650841563940048,
        -0.20294508337974548,
        -0.06878960132598877,
        -0.002289102179929614,
        0.013771180994808674,
        -0.2454419583082199,
        0.054983917623758316,
        0.2640376389026642,
        0.23834063112735748,
        -0.04872674122452736,
        0.11175718903541565,
        -0.1163993552327156,
        -0.18867948651313782,
        0.20188505947589874,
        -0.22315073013305664,
        -0.08300293982028961,
        0.0008473519701510668,
        -0.1440783143043518,
        0.12949350476264954,
        0.08865287154912949,
        -0.17918221652507782,
        0.2608378231525421,
        0.05679555982351303,
        -0.1643332988023758,
        0.06332233548164368,
        -0.10936874896287918,
        -0.009543131105601788,
        0.0880291610956192,
        -0.024172956123948097,
        0.05912662297487259,
        -0.15358616411685944,
        -0.20155929028987885,
        -0.03582358360290527,
        0.014792850241065025,
        -0.06522518396377563,
        0.14679856598377228,
        0.13910336792469025,
        -0.21960420906543732,
        0.11009987443685532,
        -0.0005866076098755002,
        0.0001782958715921268,
        -0.08113056421279907,
        -0.06498859822750092,
        0.13017705082893372,
        0.00038164068246260285,
        -0.2873935103416443,
        0.12011706829071045,
        -0.2517646551132202,
        0.043058935552835464,
        0.1585177332162857,
        -0.0005641128518618643,
        0.022668873891234398,
        -0.04560292512178421,
        -0.05077584087848663,
        -0.03558166325092316,
        -0.09843004494905472,
        -0.2739270329475403,
        -0.022704090923070908,
        0.2617710530757904,
        -0.19329442083835602,
        -0.0032541912514716387,
        -0.043516092002391815,
        -0.020461197942495346,
        -0.1682477444410324,
        -0.18793484568595886,
        0.1473548710346222,
        0.036605965346097946,
        -0.3058966100215912,
        0.1805238425731659,
        -0.0631909891963005,
        -0.015551295131444931,
        -0.15813271701335907,
        -0.29393768310546875,
        0.24551275372505188,
        0.006686723325401545,
        0.09268233180046082,
        0.20813721418380737,
        0.25846531987190247,
        -0.1317262053489685,
        -0.07737549394369125,
        -0.08462297171354294,
        -0.19555528461933136,
        0.015618140809237957,
        -0.19491705298423767,
        -0.15841548144817352,
        -0.1323186308145523,
        -0.13957162201404572,
        0.11592957377433777,
        -0.016029352322220802,
        -0.30617135763168335,
        -0.10303933918476105,
        0.27116191387176514,
        -0.16220924258232117,
        -0.10002552717924118,
        0.15813827514648438,
        -0.12265308946371078,
        0.15760299563407898,
        0.06897347420454025,
        -0.1626736968755722,
        -0.08356428146362305,
        -0.0913962572813034,
        -0.037833817303180695,
        0.08314146846532822,
        0.17839139699935913,
        0.1988321840763092,
        0.1236017644405365,
        -0.2578468322753906,
        -0.04936731606721878,
        0.15029005706310272,
        -0.032106563448905945,
        -0.2649817168712616,
        0.12631823122501373,
        0.055861543864011765,
        0.11477918177843094,
        0.1632756143808365,
        0.23617134988307953,
        0.10273869335651398,
        -0.03598695248365402,
        0.02815171331167221,
        -0.1377168893814087,
        0.29037797451019287,
        -0.1708919256925583,
        0.13990093767642975,
        0.14312992990016937,
        -0.2333001047372818,
        -0.07584940642118454,
        -0.028925174847245216,
        -0.21119412779808044,
        0.06959941983222961,
        -0.02172960340976715,
        0.12152674049139023,
        0.18697932362556458,
        -0.01209819596260786,
        0.1392688751220703,
        0.2292521446943283,
        0.1184537336230278,
        -0.0018060575239360332,
        0.18199703097343445,
        -0.15462344884872437,
        0.14587223529815674,
        0.11990303546190262,
        -0.23576420545578003,
        -0.2186601161956787,
        0.2040548175573349,
        -0.12331820279359818,
        0.10484042018651962,
        0.07956382632255554,
        0.24027793109416962,
        0.009857384487986565,
        0.10569664090871811,
        0.03787151724100113,
        0.0065537733025848866,
        0.21327222883701324,
        0.18967987596988678,
        0.01383726391941309,
        -0.09146425127983093,
        0.10829855501651764,
        -0.07410746067762375,
        0.06031325086951256,
        0.08483636379241943,
        0.0004156584618613124,
        0.10638276487588882,
        0.07366646826267242,
        0.26392534375190735,
        -0.11541584879159927,
        0.24979501962661743,
        -0.016555113717913628,
        0.14113157987594604,
        0.12703466415405273,
        0.030231431126594543,
        -0.027988102287054062,
        0.06015688180923462,
        -0.1000547707080841,
        0.011358763091266155,
        0.05172847583889961,
        0.07468689233064651,
        -0.004972077906131744,
        0.06389373540878296,
        -0.044046368449926376,
        0.1065903753042221,
        0.13258203864097595,
        -0.09442908316850662,
        -0.012491470202803612,
        -0.024303490296006203,
        -3.0172615879564546e-05,
        -0.12073484808206558,
        0.09880663454532623,
        0.12815658748149872,
        0.0006938707083463669,
        0.14504127204418182,
        -0.007799334824085236,
        0.11555291712284088,
        0.1979183703660965,
        0.12963147461414337,
        -0.06838791817426682,
        0.18135321140289307,
        0.0050950367003679276,
        0.026043899357318878,
        -0.327687531709671,
        -0.18786516785621643,
        0.03667140007019043,
        -0.10312866419553757,
        0.2916790843009949,
        0.010167596861720085,
        -0.10583429783582687,
        0.026416735723614693,
        0.26008284091949463,
        0.15140706300735474,
        -0.20303204655647278,
        -0.10704942047595978,
        0.14981597661972046,
        -0.20605923235416412,
        0.12485119700431824,
        -0.0039651659317314625,
        -0.19819173216819763,
        -0.2855910360813141,
        -0.14653916656970978,
        0.04629448056221008,
        -0.32176661491394043,
        -0.08212412148714066,
        0.19192643463611603,
        0.13286267220973969,
        0.12967421114444733,
        0.22239656746387482,
        0.21316178143024445,
        -0.09388241916894913,
        -0.22450301051139832,
        0.08284399658441544,
        -0.22468560934066772,
        -0.30422139167785645,
        -0.19501712918281555,
        0.029832882806658745,
        0.16016651690006256,
        -0.17688952386379242,
        0.08119770139455795,
        -0.07996942102909088,
        -0.22076597809791565,
        0.19083820283412933,
        -0.12273646146059036,
        0.1002214103937149,
        -0.22541232407093048,
        -0.24422457814216614,
        0.2692730128765106,
        -0.012376573868095875,
        -0.060412585735321045,
        0.03475489467382431,
        0.04823293909430504,
        0.017874587327241898,
        0.176952064037323,
        0.0007309130160138011,
        -0.2515014111995697,
        0.1024913489818573,
        -0.10552145540714264,
        0.24173562228679657,
        -0.024168431758880615,
        -0.14621007442474365,
        0.16774755716323853,
        -0.32007986307144165,
        -0.14646974205970764,
        0.08323439210653305,
        -0.1564239114522934,
        0.124849833548069,
        0.0484650693833828,
        0.32222506403923035,
        0.1612815260887146,
        0.0919342115521431,
        0.1575080305337906,
        -0.16983170807361603,
        0.11652469635009766,
        -0.1037760004401207,
        0.09364793449640274,
        -0.20678284764289856,
        -0.0005958968540653586,
        -0.21006625890731812,
        0.2233123779296875,
        -0.10097873210906982,
        0.09407398849725723,
        0.1349060982465744,
        0.1293008029460907,
        0.008249330334365368,
        -0.03956862539052963,
        0.21453146636486053,
        -0.07943889498710632,
        -0.27379921078681946,
        -0.0777970477938652,
        -0.14856956899166107,
        0.1126011535525322,
        -0.17634505033493042,
        -0.012750945053994656,
        0.1460992842912674,
        -0.17154039442539215,
        -0.1902633011341095,
        0.09672224521636963,
        -0.15308383107185364,
        0.03664190694689751,
        -0.07510203868150711,
        -0.20151732861995697,
        -0.25839531421661377,
        -0.13894301652908325,
        -0.24061624705791473,
        -0.1329721212387085,
        0.05846978724002838,
        -0.08564981073141098,
        0.042191032320261,
        -0.04000786319375038,
        -0.28234997391700745,
        0.1419304758310318,
        0.09616974741220474,
        -0.02472700923681259,
        0.16061393916606903,
        0.1783093810081482,
        0.030580945312976837,
        0.05099153891205788,
        -0.24244935810565948,
        -0.056063536554574966,
        -0.20524470508098602,
        -0.16951364278793335,
        -0.008000567555427551,
        -0.23614898324012756,
        -0.11432718485593796,
        -0.12797583639621735,
        -0.07611731439828873,
        0.16409222781658173,
        0.006860290188342333,
        0.2579237222671509,
        0.2395288050174713,
        0.03263917937874794,
        -0.038891084492206573,
        0.017152711749076843,
        0.20763060450553894,
        0.002464619232341647,
        -0.1535671353340149,
        0.29098185896873474,
        0.12596791982650757,
        0.007561080623418093,
        -0.21843917667865753,
        -0.017682161182165146,
        -0.0815650224685669,
        -0.22583484649658203,
        -0.05816540867090225,
        -0.17569051682949066,
        -0.11567827314138412,
        0.1454990804195404,
        -0.03891811519861221,
        -0.15838125348091125,
        0.27929461002349854,
        -0.050772350281476974,
        0.202151820063591,
        0.15896813571453094,
        0.13159692287445068,
        0.239145427942276,
        0.1339474618434906,
        0.008594797924160957,
        0.036364879459142685,
        0.1467997431755066,
        -0.285266637802124,
        -0.06896331906318665,
        -0.2350328117609024,
        0.017078105360269547,
        0.10526138544082642,
        0.16785278916358948,
        0.106277234852314,
        -0.19487054646015167,
        0.1185462549328804,
        0.2642945945262909,
        0.09236776828765869,
        -0.02052839659154415,
        0.18341684341430664,
        0.20284074544906616,
        0.11490745842456818,
        -0.17413616180419922,
        -0.02483627200126648,
        -0.22275109589099884,
        -0.08104941248893738,
        -0.18382704257965088,
        -0.09563581645488739,
        0.0028727019671350718,
        -0.2623547315597534,
        0.0060121226124465466,
        0.2813340723514557,
        0.00910817738622427,
        0.021035710349678993,
        0.05593935772776604,
        0.11668544262647629,
        -0.07890613377094269,
        -0.051968496292829514,
        0.12950748205184937,
        -0.236519917845726,
        -0.1659405678510666,
        -0.00846757460385561,
        -0.03432705998420715,
        0.10094951838254929,
        0.17563553154468536,
        -0.050109658390283585,
        -0.20751897990703583,
        0.14032986760139465,
        -0.013682793825864792,
        -0.1935715228319168,
        0.01269784290343523,
        -0.012111627496778965,
        0.002262665191665292,
        -0.07782656699419022,
        -0.2346213161945343,
        -0.12887094914913177,
        -0.058415450155735016,
        -0.05744876340031624,
        -0.1602342128753662,
        -0.031671661883592606,
        0.20000970363616943,
        -0.20020964741706848,
        0.05224835127592087,
        -0.12701815366744995,
        -0.20213280618190765,
        -0.12871181964874268,
        -0.34307095408439636,
        -0.2589452564716339,
        -0.007624159567058086,
        0.021260719746351242,
        0.1478765606880188,
        0.043331749737262726,
        -0.10014930367469788,
        0.050815701484680176,
        0.09600753337144852,
        0.008437344804406166,
        0.0002210773527622223,
        0.04757815599441528,
        0.06654983013868332,
        -0.04477352648973465,
        -0.07952558994293213,
        0.056612975895404816,
        -0.140595480799675,
        -0.13538070023059845,
        -0.12658919394016266,
        -0.19305256009101868,
        -0.1114884465932846,
        0.07261111587285995,
        0.17156751453876495,
        -0.09320853650569916,
        0.2819936275482178,
        0.16139383614063263,
        -0.021854473277926445,
        -0.19914080202579498,
        -0.10954133421182632,
        0.04149741306900978,
        0.2183275669813156,
        0.19741252064704895,
        -0.1415064036846161,
        0.06628266721963882,
        -0.03673236817121506,
        -0.31040433049201965,
        0.013656127266585827,
        -0.14066831767559052,
        -0.2182462066411972,
        0.06829041987657547,
        0.16451774537563324,
        0.19624187052249908,
        0.19865038990974426,
        0.016854923218488693,
        0.031765569001436234,
        -0.20433151721954346,
        -0.1644086390733719,
        0.03773943707346916,
        -0.0045626722276210785,
        0.10153341293334961,
        -0.0338703878223896,
        -0.23631589114665985,
        -0.10758978873491287,
        -0.21050356328487396,
        -0.11531814187765121,
        -0.012587355449795723,
        -0.20312407612800598,
        -0.10169141739606857,
        0.0736883133649826,
        -0.10198928415775299,
        0.03162940964102745,
        0.18196988105773926,
        -0.03891468793153763,
        -0.13132111728191376,
        0.011011473834514618,
        0.23663689196109772,
        0.1399257630109787,
        -0.15051594376564026,
        0.28527775406837463,
        0.04309152439236641,
        0.04649705812335014,
        0.17563137412071228,
        -0.12611635029315948,
        -0.0692848190665245,
        -0.14173533022403717,
        0.07645285874605179,
        0.2325013428926468,
        0.2573907673358917,
        0.01306481659412384,
        0.045929934829473495,
        0.045854415744543076,
        0.04791056364774704,
        0.11065196990966797,
        -0.10066284984350204,
        -0.05626089498400688,
        -0.2091304510831833,
        0.020810382440686226,
        0.2028295248746872,
        0.2284911870956421,
        0.09771125018596649,
        0.23108156025409698,
        -0.12903615832328796,
        0.09026189893484116,
        0.0899738073348999,
        0.25876718759536743,
        -0.04133738949894905,
        0.3144043982028961,
        0.23761525750160217,
        0.11299627274274826,
        -0.0007092551677487791,
        0.10258717089891434,
        -0.17108383774757385,
        0.11344785988330841,
        -0.021599045023322105,
        -0.056550174951553345,
        -0.0029995846562087536,
        0.0009951769607141614,
        0.08435126394033432,
        -0.1597575694322586,
        0.09926057606935501,
        -0.2002430558204651,
        0.28992730379104614,
        -0.03716253861784935,
        -0.18727339804172516,
        0.11126306653022766,
        -0.20673416554927826,
        0.046146929264068604,
        0.06025939807295799,
        -0.03857916593551636,
        -0.13399384915828705,
        -0.26132017374038696,
        -0.1305645853281021,
        0.0166457649320364,
        0.03005128726363182,
        0.06099451705813408,
        0.1696026474237442,
        0.022598912939429283,
        -0.19084808230400085,
        0.1493234932422638,
        -0.13464374840259552,
        -0.003941447474062443,
        0.23379068076610565,
        -0.26308467984199524,
        -0.09656566381454468,
        0.13383273780345917,
        -0.3499826490879059,
        -0.012686481699347496,
        0.02877555415034294,
        -0.28192374110221863,
        0.061662252992391586,
        -0.2953510880470276,
        -0.04129806160926819,
        0.03154842555522919,
        0.07839757204055786,
        0.16797418892383575,
        -0.1464942991733551,
        -0.14848089218139648,
        -0.03929286077618599,
        -0.08763021975755692,
        0.0038121805991977453,
        0.19805224239826202,
        -0.31801867485046387,
        -0.16181178390979767,
        -0.1924978643655777,
        0.0078102643601596355,
        -0.1027490422129631,
        -0.1389123946428299,
        -0.09756424278020859,
        0.028469381853938103,
        -0.10891355574131012,
        -0.17262254655361176,
        -0.10083132237195969,
        -0.08391004800796509,
        0.03750300034880638,
        -0.07903395593166351,
        0.011171769350767136,
        -0.2065146416425705,
        0.1142946258187294,
        -0.01526905782520771,
        0.01763194426894188,
        -0.09409444779157639,
        0.012394788675010204,
        -0.31248751282691956,
        0.1288713961839676,
        -0.05866330862045288,
        -0.020685043185949326,
        -0.08030220121145248,
        -0.1768575757741928,
        0.07952173054218292,
        -0.09800241142511368,
        0.06409602612257004,
        0.20873357355594635,
        -0.12418729811906815,
        0.19112560153007507,
        0.13021793961524963,
        0.26765063405036926,
        -0.1991950422525406,
        0.21474941074848175,
        0.20352371037006378,
        -0.08384612202644348,
        0.0987074077129364,
        0.1527467519044876,
        0.3073749840259552,
        -0.11600077152252197,
        0.1536707580089569,
        -0.025182534009218216,
        -0.09318260848522186,
        0.02431533671915531,
        -0.19587600231170654,
        0.04947464168071747,
        -0.0310699213296175,
        -0.13232338428497314,
        0.10131314396858215,
        -0.3142499625682831,
        0.21026729047298431,
        0.04716295376420021,
        0.039677929133176804,
        -0.03541630506515503,
        0.04638347774744034,
        0.1623213142156601,
        0.04182879999279976,
        -0.07231244444847107,
        0.0870727077126503,
        0.09443656355142593,
        0.008260847069323063,
        0.1340365707874298,
        -0.06912420690059662,
        -0.028573889285326004,
        0.12481795996427536,
        -0.1274249106645584,
        -0.054426293820142746,
        0.1821601688861847,
        0.17598268389701843,
        -0.16514773666858673,
        0.1380511075258255,
        -0.21126097440719604,
        0.0034922973718494177,
        -0.18637578189373016,
        -0.026690052822232246,
        -0.043271224945783615,
        0.0026025352999567986,
        0.14165982604026794,
        0.053539346903562546,
        -0.08622769266366959,
        0.07602288573980331,
        0.021384691819548607,
        0.17812073230743408,
        -0.2136780023574829,
        -0.15325790643692017,
        0.13746435940265656,
        0.01983536034822464,
        -0.2678735852241516,
        -0.09517908096313477,
        0.02485966682434082,
        0.12027159333229065,
        0.14912937581539154,
        -0.33483651280403137,
        -0.03940461203455925,
        -0.008330578915774822,
        -0.11803767830133438,
        -9.642688382882625e-05,
        0.06758777797222137,
        -0.2542039752006531,
        0.17399831116199493,
        0.0390583798289299,
        -0.32999110221862793,
        0.18128544092178345,
        -0.1766662895679474,
        -0.32088586688041687,
        -0.2215244024991989,
        -0.14968493580818176,
        7.009668479440734e-05,
        -0.03755567967891693,
        -0.006900901906192303,
        -0.26485905051231384,
        -0.1592908799648285,
        -0.28449928760528564,
        -0.004949469119310379,
        0.23378589749336243,
        0.2482418268918991,
        0.175164595246315,
        -0.21959969401359558,
        0.26861777901649475,
        -0.154907688498497,
        -0.19057267904281616,
        0.04223526269197464,
        -0.03196776658296585,
        -0.12522757053375244,
        0.06889840215444565,
        -0.13730810582637787,
        -0.2339743673801422,
        -0.2467295527458191,
        -0.1374206393957138,
        0.1419946849346161,
        -0.24932466447353363,
        0.03701949492096901,
        0.002382588339969516,
        -0.0801934078335762,
        -0.13749665021896362,
        -0.3171781599521637,
        -0.20661407709121704,
        -0.0971568375825882,
        0.2274179309606552,
        0.06735024601221085,
        0.15332405269145966,
        0.18948833644390106,
        0.0988539457321167,
        0.06045207753777504,
        -0.0245293490588665,
        0.013502690941095352,
        0.19665518403053284,
        -0.1594444364309311,
        -0.049906518310308456,
        -0.22971586883068085,
        0.11901423335075378,
        0.19244155287742615,
        -0.03506654128432274,
        0.15633220970630646,
        -0.19682857394218445,
        0.19162140786647797,
        0.1976696252822876,
        -0.15022629499435425,
        -0.25798773765563965,
        -0.2494838833808899,
        -0.08044791221618652,
        0.22284285724163055,
        -0.0808975100517273,
        -0.13119252026081085,
        0.07456628233194351,
        0.05644979327917099,
        0.0008127299952320755,
        0.0894722118973732,
        -0.16383622586727142,
        0.1719362437725067,
        0.01104026660323143,
        -0.0911988615989685,
        0.025510748848319054,
        0.048567138612270355,
        -0.09754544496536255,
        -0.18050925433635712,
        -0.22750739753246307,
        0.10166437923908234,
        -0.07678476721048355,
        0.10280601680278778,
        0.1954931616783142,
        -0.086605966091156,
        -0.07515672594308853,
        -0.08408041298389435,
        0.07546939700841904,
        -0.03651095926761627,
        0.12479124218225479,
        0.010650531388819218,
        0.06467187404632568,
        0.06700687855482101,
        0.13539883494377136,
        0.020230550318956375,
        -0.0002053248172160238,
        -0.04390701651573181,
        -0.060003187507390976,
        -0.04425184056162834,
        -0.06794524192810059,
        -0.16844381392002106,
        -0.027862267568707466,
        -0.21591471135616302,
        -0.20002008974552155,
        0.047918111085891724,
        -0.108963243663311,
        0.19221052527427673,
        0.14097538590431213,
        0.1635512113571167,
        -0.018663501366972923,
        0.2838584780693054,
        -0.0947800725698471,
        0.16800802946090698,
        0.05768086016178131,
        -0.1373276561498642,
        -0.078920379281044,
        -0.049443066120147705,
        -0.02592458389699459,
        -0.03213364630937576,
        -0.006818594876676798,
        -0.05463869869709015,
        -0.20857448875904083,
        0.05882682278752327,
        -0.15987011790275574,
        0.021039169281721115,
        0.1501946747303009,
        0.026922626420855522,
        -0.09386102855205536,
        -0.07317373156547546,
        0.19153127074241638,
        -0.2068701982498169,
        -0.014742884784936905,
        -0.03461841121315956,
        -0.04040892422199249,
        -0.12805074453353882,
        -0.1937585473060608,
        0.16066235303878784,
        0.30468499660491943,
        0.22064460813999176,
        -0.14343664050102234,
        0.01556059904396534,
        0.1673414707183838,
        0.1772763878107071,
        0.10166312754154205,
        0.34679239988327026,
        0.11366794258356094,
        -0.25388914346694946,
        0.212272047996521,
        -0.15631923079490662,
        -0.3314060866832733,
        -0.010157802142202854,
        -0.003663151990622282,
        -0.16583268344402313,
        -0.2416543811559677,
        -0.05107329040765762,
        -0.05554959550499916,
        0.00823252834379673,
        -0.015673233196139336,
        -0.06758987903594971,
        0.21162186563014984,
        0.13723833858966827,
        -0.19673696160316467,
        0.13793975114822388,
        0.01153033971786499,
        0.09120997786521912,
        -0.010523132979869843,
        -0.07988560944795609,
        0.16547426581382751,
        -0.22816509008407593,
        -0.05155666917562485,
        0.26609936356544495,
        -0.22402562201023102,
        0.32548803091049194,
        0.016117673367261887,
        0.24251098930835724,
        0.29645317792892456,
        -0.17857731878757477,
        -0.05698570981621742,
        -0.006979524157941341,
        0.15823234617710114,
        -0.14972297847270966
      ]
    },
    {
      "activation": "rectified",
      "architecture": "dense",
      "bias": [
        0.06555665284395218,
        0.046420346945524216,
        0.03618200868368149,
        0.07118833810091019,
        -0.007451245561242104,
        0.026882952079176903,
        0.015301737003028393,
        0.01705038733780384,
        0.033493176102638245,
        0.0377022959291935,
        0.07665154337882996,
        0.08185499161481857,
        0.02188819646835327,
        0.09314344823360443,
        0.15928040444850922,
        0.024705320596694946
      ],
      "weights": [
        -0.013793864287436008,
        -0.11353268474340439,
        0.19206738471984863,
        -0.12811532616615295,
        0.30607980489730835,
        -0.2957381308078766,
        0.02024536393582821,
        0.1144934669137001,
        -0.07376401126384735,
        0.019849514588713646,
        0.3496113419532776,
        -0.18266044557094574,
        0.0004891189164482057,
        -0.1492144614458084,
        -0.2127337008714676,
        -0.15506292879581451,
        0.29265254735946655,
        0.28053146600723267,
        -0.08843356370925903,
        0.28184759616851807,
        0.024838266894221306,
        -0.017646431922912598,
        0.03024548478424549,
        0.06558932363986969,
        -0.3098299503326416,
        -0.02483225427567959,
        0.2265782505273819,
        -0.1316651999950409,
        0.026406578719615936,
        -0.16500231623649597,
        -0.06299556791782379,
        -0.06418756395578384,
        -0.14992056787014008,
        -0.007873056456446648,
        0.2555451989173889,
        0.16036877036094666,
        0.24006593227386475,
        -0.1284303516149521,
        -0.039897289127111435,
        0.058180082589387894,
        -0.08898084610700607,
        0.011683625169098377,
        0.3022843599319458,
        0.034829702228307724,
        0.050934452563524246,
        0.046901073306798935,
        -0.09122281521558762,
        0.2261132448911667,
        -0.1691172569990158,
        0.1388198882341385,
        -0.017476791515946388,
        0.09274506568908691,
        -0.26805391907691956,
        -0.1351964920759201,
        -0.07378607243299484,
        -0.1352052390575409,
        0.10464715957641602,
        0.1784052550792694,
        0.07987889647483826,
        0.202398419380188,
        0.14533598721027374,
        0.05788803845643997,
        0.17418397963047028,
        -0.03925662860274315,
        0.25425955653190613,
        0.21702398359775543,
        -0.21426314115524292,
        0.2606019973754883,
        0.033633723855018616,
        0.0018986637005582452,
        0.14608365297317505,
        -0.07889307290315628,
        0.0494266077876091,
        -0.0031259048264473677,
        -0.11509803682565689,
        -0.30379581451416016,
        0.03251095116138458,
        0.08968294411897659,
        0.0007289634668268263,
        -0.14937907457351685,
        -0.21552425622940063,
        -0.1399092674255371,
        0.011058565229177475,
        0.20311030745506287,
        -0.10065147280693054,
        -0.06511124223470688,
        -0.25826409459114075,
        0.04452180117368698,
        -0.16394129395484924,
        -0.011432650499045849,
        0.17334789037704468,
        -0.19872048497200012,
        -0.19079743325710297,
        -0.19164057075977325,
        -0.03423667326569557,
        -0.18978619575500488,
        0.1129697635769844,
        -0.21092353761196136,
        0.29102930426597595,
        -0.19190961122512817,
        0.2526492476463318,
        0.10820728540420532,
        0.038271866738796234,
        9.17675788514316e-06,
        0.19933143258094788,
        -0.09322552382946014,
        -0.004072383977472782,
        -0.17406734824180603,
        0.18895015120506287,
        0.1366860419511795,
        0.005090439226478338,
        -0.09529012441635132,
        0.15636922419071198,
        -0.07936511933803558,
        -0.16469642519950867,
        0.22312264144420624,
        0.15000903606414795,
        0.1702575832605362,
        -0.23938590288162231,
        0.2094493955373764,
        0.09036241471767426,
        0.2419433891773224,
        -0.029073070734739304,
        0.23565883934497833,
        -0.11286959797143936,
        -0.13367527723312378,
        -0.232412189245224,
        0.1947675496339798,
        0.06155714765191078,
        -0.264116495847702,
        0.2388889640569687,
        -0.21845309436321259,
        0.2480086237192154,
        -0.1033162847161293,
        -0.10114045441150665,
        -0.05407150834798813,
        0.0994446650147438,
        -0.06596863269805908,
        0.2099151760339737,
        0.010738879442214966,
        -0.024843161925673485,
        -0.09418237954378128,
        -0.06257136166095734,
        -0.07477038353681564,
        0.06777700036764145,
        0.09921661019325256,
        -0.2774013578891754,
        -0.1493251770734787,
        -0.09404867887496948,
        -0.15965668857097626,
        0.25090041756629944,
        -0.23333440721035004,
        -0.06250277906656265,
        0.31051769852638245,
        0.2810153365135193,
        -0.30529892444610596,
        -0.22100812196731567,
        0.3439317047595978,
        -0.2784144878387451,
        -0.04106857627630234,
        -0.2511609196662903,
        0.06770049780607224,
        -0.21830041706562042,
        -0.18704478442668915,
        -0.23786570131778717,
        -0.030320260673761368,
        0.10938307642936707,
        0.17552538216114044,
        -0.2988339960575104,
        -0.24334558844566345,
        -0.16487041115760803,
        -0.012072504498064518,
        0.20663489401340485,
        0.005769617389887571,
        -0.11027593910694122,
        -0.1538011133670807,
        0.1096443384885788,
        -0.2040451169013977,
        0.014103521592915058,
        -0.2808454632759094,
        -0.24470843374729156,
        0.28977978229522705,
        0.2845522165298462,
        -0.1961202770471573,
        0.02016124501824379,
        -0.15105576813220978,
        -0.11728718131780624,
        -0.23577600717544556,
        0.058197494596242905,
        0.04768608137965202,
        0.0876569077372551,
        -0.05557696893811226,
        0.010083898901939392,
        0.03986123576760292,
        0.29486003518104553,
        -0.12536703050136566,
        -0.11249380558729172,
        0.28064027428627014,
        0.05740389972925186,
        -0.1206551119685173,
        -0.15088102221488953,
        0.1376315951347351,
        0.25480976700782776,
        -0.06718616187572479,
        0.2525898218154907,
        -0.34262439608573914,
        -0.14999379217624664,
        -0.0019174226326867938,
        0.12430807948112488,
        0.29803961515426636,
        0.2340703010559082,
        -0.1045951321721077,
        -0.04373903572559357,
        -0.047258779406547546,
        -0.22915375232696533,
        0.15731604397296906,
        -0.1189122423529625,
        -0.19503723084926605,
        -0.24097198247909546,
        -0.259173184633255,
        0.06985421478748322,
        0.09940031915903091,
        -0.07416678965091705,
        -0.1462429314851761,
        0.007901732809841633,
        0.012938888743519783,
        0.25065702199935913,
        0.055668897926807404,
        -0.15121407806873322,
        0.24145911633968353,
        -0.2738882899284363,
        0.133202463388443,
        0.06553946435451508,
        -0.027975579723715782,
        -0.21065449714660645,
        0.12948822975158691,
        -0.28797417879104614,
        -0.22078049182891846,
        0.16160719096660614,
        -0.267768919467926,
        0.07994394749403,
        0.19540901482105255,
        0.14013351500034332,
        -0.15959101915359497,
        -0.16195783019065857,
        0.06682591885328293,
        -0.3146655857563019,
        -0.2911939322948456,
        0.24828408658504486,
        0.09676200896501541,
        0.1607242226600647,
        -0.203452467918396,
        -0.10270308703184128,
        -0.0475492849946022,
        0.19314543902873993,
        0.26120835542678833,
        -0.2345392107963562,
        0.028581250458955765,
        -0.14342336356639862,
        -0.2792353928089142,
        0.012395953759551048,
        0.26620835065841675,
        -0.24462918937206268,
        0.003621137235313654,
        0.07651379704475403,
        -0.289875328540802,
        0.08845757693052292,
        0.19400931894779205,
        0.14620459079742432,
        -0.043245866894721985,
        -0.07270964235067368,
        -0.14766867458820343,
        -0.13312572240829468,
        0.17640408873558044,
        -0.04562968388199806,
        -0.2569296360015869,
        -0.30649691820144653,
        0.11841783672571182,
        0.2921573221683502,
        0.0391237847507,
        -0.02818690612912178,
        0.25749847292900085,
        -0.2938655614852905,
        0.38924869894981384,
        0.014351344667375088,
        0.23538169264793396,
        -0.09255556017160416,
        -0.33990538120269775,
        -0.1832236796617508,
        0.05994708463549614,
        -0.3269127905368805,
        0.10038147866725922,
        0.13979457318782806,
        -0.14927080273628235,
        0.11219090968370438,
        0.36430391669273376,
        -0.11657005548477173,
        -0.1468617469072342,
        -0.12436402589082718,
        0.0013097029877826571,
        -0.07057550549507141,
        0.055111248046159744,
        -0.2151142656803131,
        0.18344400823116302,
        0.003245271509513259,
        -0.1140361800789833,
        -0.18529389798641205,
        -0.2613521218299866,
        0.00523123936727643,
        0.07670023292303085,
        0.23812314867973328,
        -0.03247646242380142,
        -0.19853506982326508,
        0.05235607549548149,
        -0.15052533149719238,
        0.10377174615859985,
        -0.15592734515666962,
        0.05065098777413368,
        0.03085341863334179,
        0.208940789103508,
        -0.06885846704244614,
        0.028232252225279808,
        0.21327324211597443,
        0.128184512257576,
        -0.11550392955541611,
        -0.28599533438682556,
        0.3163117468357086,
        0.17327402532100677,
        -0.002571812365204096,
        -0.20158761739730835,
        0.083385169506073,
        -0.281653493642807,
        0.0020427112467586994,
        -0.16843879222869873,
        -0.021466532722115517,
        -0.002760134870186448,
        0.315729558467865,
        0.21381528675556183,
        -0.1646455079317093,
        0.22532592713832855,
        0.1162421777844429,
        0.029081128537654877,
        -0.08724617213010788,
        -0.11612141132354736,
        -0.3133135139942169,
        -0.25697848200798035,
        0.06844455003738403,
        -0.166757270693779,
        0.12489557266235352,
        0.143719881772995,
        -0.05449087545275688,
        0.25165703892707825,
        -0.18202514946460724,
        -0.27459481358528137,
        -0.027615144848823547,
        0.2579447329044342,
        0.008878439664840698,
        0.12281523644924164,
        -0.2050849348306656,
        -0.12834860384464264,
        0.13329309225082397,
        -0.18101105093955994,
        0.25602322816848755,
        0.16078563034534454,
        -0.2373281717300415,
        -0.24308213591575623,
        -0.14778931438922882,
        0.061239976435899734,
        0.0750119537115097,
        -0.011986492201685905,
        -0.10163001716136932,
        -0.11834456026554108,
        -0.1858411431312561,
        0.22974039614200592,
        -0.16005182266235352,
        -0.25163325667381287,
        -0.04838278517127037,
        0.10574036091566086,
        0.1724070906639099,
        0.07111130654811859,
        -0.06387972086668015,
        -0.2706483006477356,
        0.21681725978851318,
        -0.1766679883003235,
        -0.30521655082702637,
        0.11738608032464981,
        -0.09845329076051712,
        -0.17109628021717072,
        0.028164127841591835,
        -0.10115744918584824,
        -0.21595042943954468,
        -0.24005070328712463,
        0.09541399776935577,
        0.14246448874473572,
        -0.021983250975608826,
        0.16095559298992157,
        -0.24041052162647247,
        -0.3236362636089325,
        -0.05030496418476105,
        -0.2437518835067749,
        0.040764521807432175,
        0.2709929049015045,
        -0.24035362899303436,
        -0.2237662672996521,
        -0.009515430778265,
        -0.24099697172641754,
        -0.15303082764148712,
        0.06290159374475479,
        0.03846512734889984,
        -0.27004146575927734,
        -0.05060559883713722,
        0.005281645338982344,
        0.15731211006641388,
        0.21976147592067719,
        -0.25627806782722473,
        0.18039527535438538,
        0.09468474239110947,
        0.143611878156662,
        0.07275034487247467,
        0.243353933095932,
        0.1538063883781433,
        -0.09060540795326233,
        -0.021567881107330322,
        0.04298891872167587,
        0.11370496451854706,
        0.13467946648597717,
        0.15776710212230682,
        -0.19089947640895844,
        -0.31597355008125305,
        -0.28533804416656494,
        -0.05315147340297699,
        0.13890418410301208,
        -0.2738927900791168,
        -0.18137788772583008,
        -0.025612426921725273,
        -0.2532484829425812,
        0.17084497213363647,
        -0.28272831439971924,
        -0.0818958505988121,
        -0.23652219772338867,
        0.1547396183013916,
        0.09473805129528046,
        -0.270267128944397,
        -0.20601974427700043,
        -0.11356844753026962,
        0.08188556134700775,
        -0.13683049380779266,
        0.06977220624685287,
        -0.04954320937395096,
        -0.17811083793640137,
        0.08675148338079453,
        -0.06771238148212433,
        0.230576291680336,
        -0.060235049575567245,
        0.21567419171333313,
        -0.2539164423942566,
        -0.2410351186990738,
        -0.23782378435134888,
        0.33256468176841736,
        0.14320014417171478,
        0.11000072956085205,
        -0.25953325629234314,
        -0.13856251537799835,
        -0.15443268418312073,
        0.06709575653076172,
        0.050544168800115585,
        -0.26598697900772095,
        0.3364219665527344,
        0.13333329558372498,
        -0.083655945956707,
        -0.29327139258384705,
        -0.15569975972175598,
        -0.009299909695982933,
        -0.1466291844844818,
        0.34363606572151184,
        -0.06307642161846161,
        -0.28719356656074524,
        0.18647852540016174,
        0.06601934880018234,
        -0.0947759822010994,
        -0.28317728638648987,
        -0.2625611424446106,
        0.022800087928771973,
        -0.0637814924120903,
        0.09996969252824783,
        0.25089049339294434,
        -0.24079425632953644,
        0.18617455661296844,
        -0.1574234515428543,
        0.15474963188171387,
        0.1546783745288849,
        0.07621041685342789,
        -0.23996514081954956,
        -0.0509326197206974,
        0.26096221804618835,
        -0.16788968443870544,
        0.058889713138341904,
        0.09730367362499237,
        -0.2626151740550995,
        0.05063578113913536,
        -0.23996014893054962,
        -0.19360999763011932,
        0.09163375198841095,
        -0.14674875140190125,
        -0.047421086579561234,
        -0.21035116910934448,
        0.21712732315063477,
        0.293440043926239,
        -0.09971114248037338,
        -0.19107303023338318,
        0.31198176741600037,
        -0.12200234085321426,
        0.24226528406143188,
        0.18939170241355896,
        -0.202633336186409,
        0.04232705757021904,
        0.3099066913127899,
        0.13970740139484406,
        0.2544333338737488,
        0.21517492830753326,
        -0.1267363727092743,
        0.13692155480384827,
        -0.10561180114746094,
        0.140729159116745,
        0.17947791516780853,
        -0.23695144057273865,
        0.00582209974527359,
        -0.011091545224189758,
        0.01602455973625183,
        0.16389040648937225,
        -0.1374243199825287,
        -0.1976766139268875,
        0.02953704632818699,
        0.2054855227470398,
        0.18493585288524628,
        -0.055254917591810226,
        0.15156109631061554,
        -0.03790993243455887,
        0.1928582489490509,
        -0.3068700134754181,
        -0.1268472969532013,
        0.03993554040789604,
        0.23597006499767303,
        0.2594093680381775,
        0.2202366143465042,
        -0.2136314958333969,
        -0.1289726346731186,
        -0.12093766778707504,
        -0.05930692330002785,
        0.2627577781677246,
        -0.2600068151950836,
        -0.23034219443798065,
        -0.27185383439064026,
        0.13097195327281952,
        0.2239425629377365,
        0.08542758226394653,
        -0.23749686777591705,
        -0.0030941753648221493,
        -0.02553444355726242,
        -0.1710662841796875,
        0.12134157866239548,
        -0.05953039973974228,
        0.09486318379640579,
        -0.13139013946056366,
        -0.09424830228090286,
        0.3120822310447693,
        0.007042763754725456,
        -0.10332363098859787,
        -0.0681760236620903,
        0.03174103423953056,
        -0.19473490118980408,
        0.2197519838809967,
        0.24261409044265747,
        -0.16295111179351807,
        0.24818912148475647,
        0.10008810460567474,
        0.2810688316822052,
        0.033060748130083084,
        0.10475672781467438,
        0.0900016650557518,
        0.29799532890319824,
        -0.0477038137614727,
        0.2778625190258026,
        -0.22712355852127075,
        0.18343321979045868,
        -0.19582289457321167,
        0.06109626591205597,
        -0.3280637562274933,
        0.0229547880589962,
        -0.17394104599952698,
        0.22416488826274872,
        0.2694198489189148,
        0.02228175848722458,
        0.25735387206077576,
        -0.0625387579202652,
        -0.09642297029495239,
        -0.11782719939947128,
        -0.10478661954402924,
        0.13332973420619965,
        0.20509909093379974,
        -0.13589675724506378,
        0.1644483059644699,
        0.23114630579948425,
        -0.11113291233778,
        -0.19547139108181,
        -0.240593820810318,
        -0.005345091689378023,
        0.013792263343930244,
        -0.08238054066896439,
        -0.24413885176181793,
        0.13978096842765808,
        0.15354396402835846,
        0.22138413786888123,
        0.099692702293396,
        -0.25802332162857056,
        -0.2704080045223236,
        0.1971600204706192,
        -0.15145158767700195,
        0.18651650846004486,
        0.22007647156715393,
        0.02603943832218647,
        -0.2199684977531433,
        -0.1524864137172699,
        -0.0756458267569542,
        -0.2310449779033661,
        0.25004154443740845,
        -0.16675244271755219,
        -0.20813514292240143,
        -0.17293387651443481,
        -0.2357395440340042,
        -0.22513742744922638,
        -0.06366212666034698,
        -0.1135668158531189,
        0.07344947010278702,
        0.3029131591320038,
        -0.14683465659618378,
        -0.09045574069023132,
        -0.05583395063877106,
        -0.14152078330516815,
        -0.023216702044010162,
        0.18572519719600677,
        -0.20075209438800812,
        -0.10979694873094559,
        -0.27790769934654236,
        0.006466491613537073,
        0.0011004551779478788,
        0.2860071659088135,
        -0.20425444841384888,
        -0.027773642912507057,
        -0.07159120589494705,
        0.036499958485364914,
        0.0024576238356530666,
        -0.19552910327911377,
        0.23713912069797516,
        -0.12879402935504913,
        0.22066709399223328,
        -0.15068548917770386,
        0.24171613156795502,
        -0.025144366547465324,
        -0.051012542098760605,
        0.18147426843643188,
        -0.0035186714958399534,
        0.21648390591144562,
        -0.27876293659210205,
        0.059095315635204315,
        -0.16730768978595734,
        0.3373611867427826,
        -0.29152002930641174,
        -0.13007676601409912,
        -0.011456754989922047,
        0.006372279487550259,
        0.29320478439331055,
        -0.24742458760738373,
        0.26637503504753113,
        0.004257435444742441,
        -0.04743818938732147,
        -0.045038968324661255,
        0.010349614545702934,
        -0.25911590456962585,
        0.09018850326538086,
        0.018681997433304787,
        -0.20168150961399078,
        -0.0004849465622100979,
        0.1050422266125679,
        -0.2553974390029907,
        -0.012465152889490128,
        0.13173437118530273,
        -0.27846676111221313,
        0.20864413678646088,
        0.2349366992712021,
        -0.008633614517748356,
        0.21960633993148804,
        0.014823174104094505,
        0.027152044698596,
        0.18677806854248047,
        -0.05945685878396034,
        -0.2843562662601471,
        -0.07729893177747726,
        -0.035993196070194244,
        0.2854544222354889,
        0.20766548812389374,
        -0.05681822821497917,
        0.25186899304389954,
        -0.08534988760948181,
        -0.20837092399597168,
        -0.30155229568481445,
        -0.17806081473827362,
        -0.09993397444486618,
        -0.11166747659444809,
        -0.10185876488685608,
        0.23657312989234924,
        0.4512707591056824,
        -0.40720829367637634,
        -0.002327778609469533,
        -0.12624621391296387,
        -0.03548779711127281,
        -0.3739478886127472,
        0.23393213748931885,
        0.06496048718690872,
        0.14208436012268066,
        0.23174040019512177,
        0.05045785382390022,
        -0.10793008655309677,
        0.22850334644317627,
        -0.29992353916168213,
        0.23677773773670197,
        0.36353012919425964,
        0.14226320385932922,
        0.09099417924880981,
        0.34496310353279114,
        0.03765673190355301,
        0.18375122547149658,
        -0.2478797286748886,
        0.11626002192497253,
        -0.3109821081161499,
        -0.436675101518631,
        0.16585546731948853,
        0.3241032063961029,
        -0.1561761051416397,
        -0.09735310077667236,
        -0.010365274734795094,
        -0.36970219016075134,
        0.00016851825057528913,
        0.1359550952911377,
        0.01712331362068653,
        -0.14654941856861115,
        -0.0670396089553833,
        -0.13702121376991272,
        0.11268454045057297,
        0.01709546335041523,
        -0.06981801986694336,
        0.3931034207344055,
        0.21266493201255798,
        0.2727808654308319,
        0.1902976632118225,
        -0.32347169518470764,
        -0.21436673402786255,
        0.2036384493112564,
        0.09030541032552719,
        -0.16101670265197754,
        -0.07518284022808075,
        -0.46730515360832214,
        -0.07623572647571564,
        -0.07962873578071594,
        -0.17949843406677246,
        0.02148502692580223,
        -0.17397886514663696,
        0.39163509011268616,
        -0.20971527695655823,
        0.1551167070865631,
        -0.16363516449928284,
        -0.36112141609191895,
        0.3051183223724365,
        -0.17937566339969635,
        0.015995394438505173,
        0.41206103563308716,
        0.07413255423307419,
        -0.020037109032273293,
        0.3172784149646759,
        0.13601765036582947,
        -0.07718005031347275,
        -0.09038129448890686,
        0.16439460217952728,
        -0.01985049992799759,
        0.17469872534275055,
        -0.08919643610715866,
        -0.06326407194137573,
        0.3086264133453369,
        -0.15449830889701843,
        -0.06469204276800156,
        0.1505306214094162,
        -0.059634264558553696,
        0.20148028433322906,
        0.20987337827682495,
        0.08040319383144379,
        -0.14697152376174927,
        0.06889498233795166,
        0.06628534942865372,
        -0.18007704615592957,
        -0.21772173047065735,
        -0.12720505893230438,
        0.2743641436100006,
        -0.10455231368541718,
        -0.021813862025737762,
        -0.1503448635339737,
        -0.19249309599399567,
        0.30571267008781433,
        0.41380614042282104,
        0.02674117125570774,
        0.13860656321048737,
        -0.15054786205291748,
        -0.18855811655521393,
        0.09811993688344955,
        -0.17145726084709167,
        -0.26624125242233276,
        0.4131397008895874,
        0.012102612294256687,
        -0.11334383487701416,
        -0.004864919930696487,
        -0.13765139877796173,
        -0.006526614539325237,
        0.41606560349464417,
        0.07823286950588226,
        0.3434385359287262,
        -0.37250393629074097,
        -0.3616226315498352,
        -0.2434111386537552,
        0.027965113520622253,
        -0.15426865220069885,
        0.02184983156621456,
        -0.22597192227840424,
        0.19871163368225098,
        0.030178770422935486,
        -0.27715620398521423,
        0.1350027620792389,
        0.09797213226556778,
        -0.0054735783487558365,
        -0.20154505968093872,
        -0.0316777341067791,
        -0.17265695333480835,
        -0.050474341958761215,
        -0.10641835629940033,
        -0.19465115666389465,
        -0.3126792013645172,
        -0.020974785089492798,
        -0.0648307353258133,
        -0.09936269372701645,
        0.13644719123840332,
        -0.20124571025371552,
        -0.03867587447166443,
        0.08196001499891281,
        -0.022135546430945396,
        -0.30030229687690735,
        0.1958693414926529,
        0.07333587110042572,
        0.1698119044303894,
        0.3985850214958191,
        0.021310390904545784,
        -0.08364465087652206,
        0.55689936876297,
        0.059043657034635544,
        0.3754004240036011,
        -0.06902040541172028,
        -0.2687567174434662,
        -0.2451438158750534,
        -0.025228137150406837,
        -0.16340461373329163,
        0.314775288105011,
        -0.18194563686847687,
        -0.11825232952833176,
        0.34557250142097473,
        0.13773255050182343,
        -0.2636686861515045,
        0.06761786341667175,
        -0.19405923783779144,
        -0.22192245721817017,
        0.279152512550354,
        -0.15271130204200745,
        -0.1541534662246704,
        0.02263820357620716,
        0.2579302191734314,
        -0.017061572521924973,
        0.30360907316207886,
        -0.02249417081475258,
        -0.1256454885005951,
        0.03659519925713539,
        -0.08543898165225983,
        -0.1263613998889923,
        0.14024464786052704,
        -0.13696905970573425,
        -0.3233393132686615,
        -0.38681840896606445,
        -0.22709167003631592,
        0.0013220695545896888,
        -0.3722172677516937,
        0.016124922782182693,
        0.014689518138766289,
        -0.24186348915100098,
        0.20901010930538177,
        -0.18138501048088074,
        -0.45462003350257874,
        0.16380895674228668,
        0.22548770904541016,
        0.1295614391565323,
        -0.2667097747325897,
        -0.0953192487359047,
        0.24498599767684937,
        -0.2865413725376129,
        0.17874054610729218,
